a 0.13533355295658112 -0.14917829632759094 0.17234084010124207 0.10797100514173508 -0.18192729353904724 -0.03721559792757034 0.15404507517814636 -0.01716267503798008 -0.11932657659053802 0.06405459344387054 -0.0272449292242527 0.2835664451122284 -0.045770298689603806 0.26624879240989685 -0.14207249879837036 -0.2786738872528076 0.23013007640838623 0.03663099929690361 0.10383297502994537 0.1237761527299881 0.23093822598457336 -0.17794393002986908 0.27474871277809143 -0.2779366970062256 -0.026536552235484123 0.024100834503769875 0.16649997234344482 0.22302791476249695 -0.0061954897828400135 -0.06736422330141068 0.24607782065868378 0.027288077399134636 0.005550106056034565 0.08939484506845474 -0.049139879643917084 0.10888281464576721 0.10050065815448761 -0.19107164442539215 -0.053802017122507095 0.06398633867502213 0.24055048823356628 0.14972583949565887 0.07950592786073685 0.13594521582126617 -0.11561830341815948 -0.3155887722969055 0.1637227088212967 -0.06000262126326561 -0.2430233657360077 0.040882039815187454 0.3067452609539032 0.17031680047512054 0.055765263736248016 0.09004215896129608 0.03700699284672737 -0.3666207492351532 0.07513689994812012 -0.3918679654598236 -0.252302348613739 -0.21790467202663422 -0.07228004187345505 0.12100136280059814 0.16789138317108154 -0.2579885721206665 -0.061356306076049805 -0.09654656797647476 -0.05058854818344116 -0.061671800911426544 -0.08824783563613892 -0.28362876176834106 -0.041432298719882965 0.05139172449707985 0.39272695779800415 -0.20761005580425262 -0.036913156509399414 0.05307070538401604 -0.07443676143884659 -0.06011723726987839 0.004017940256744623 -0.35211652517318726 -0.1366422474384308 -0.16148295998573303 0.15691310167312622 0.0032069452572613955 0.16421477496623993 0.12072344124317169 0.07230100780725479 0.11131025105714798 0.05309951305389404 0.36285069584846497 -0.22401128709316254 -0.05463521555066109 -0.06509003788232803 0.09910200536251068 0.2839864492416382 0.05999866873025894 -0.12040647119283676 -0.1653742492198944 -0.23261378705501556 -0.05221126228570938
b -0.12091927975416183 -0.23317700624465942 0.06390070170164108 -0.0798720270395279 0.07195909321308136 0.0783945620059967 -0.24353079497814178 0.005958961322903633 0.2724250853061676 0.05782347917556763 0.08920533210039139 -0.12863606214523315 -0.1697572022676468 -0.30093374848365784 0.15636327862739563 0.10051526129245758 -0.031912896782159805 0.02928725630044937 0.031129200011491776 -0.23334459960460663 0.18926985561847687 -0.201754629611969 -0.20901767909526825 0.012973681092262268 0.003052167594432831 0.02217545360326767 -0.1674930304288864 0.1863386631011963 -0.2625805139541626 -0.022206518799066544 0.15946221351623535 -0.013676172122359276 -0.10967869311571121 0.06110447645187378 -0.1487232744693756 0.1932104080915451 -0.06934229284524918 -0.29434752464294434 0.1950947344303131 0.1187511682510376 -0.15269798040390015 -0.0755380317568779 0.07635196298360825 -0.04932330548763275 -0.011526517570018768 0.10937990248203278 -0.07093679159879684 -0.10782594233751297 0.1142973005771637 -0.13753202557563782 -0.07430568337440491 -0.27488192915916443 -0.021908920258283615 0.0400591641664505 -0.015532680787146091 -0.04103941097855568 0.023978255689144135 0.07349405437707901 -0.012028644792735577 -0.09867097437381744 0.07956822961568832 0.016367411240935326 0.18232768774032593 0.05134082958102226 0.10190767794847488 -0.01927870884537697 0.2405523657798767 0.1253877580165863 0.15137748420238495 -0.11891914904117584 -0.12255138158798218 -0.032042570412158966 -0.19574981927871704 6.00213825237006E-4 0.1610584408044815 0.039825983345508575 0.02754107117652893 -0.08393333107233047 -3.6370346788316965E-4 -0.00517320167273283 0.1546413153409958 -0.10542377829551697 0.058900896459817886 0.017717987298965454 0.028531059622764587 -0.09082016348838806 -0.0834246575832367 0.20303702354431152 0.10841211676597595 0.005183406639844179 -0.0031818158458918333 -0.17322573065757751 0.019658762961626053 -0.004833016078919172 -0.041377898305654526 -0.31038638949394226 0.011450455524027348 0.10849820077419281 0.02928638458251953 -0.057497091591358185
c 0.13972768187522888 0.03895695507526398 0.3345235586166382 -0.08169244229793549 0.02326837368309498 0.21495363116264343 0.10839561372995377 -0.16669592261314392 -0.1925572007894516 0.09682520478963852 -0.09883135557174683 -0.1254236102104187 -0.08228146284818649 -0.1424911767244339 0.09498482197523117 -0.12148507684469223 0.2630023956298828 -0.18018347024917603 -0.1067463606595993 -0.04595237970352173 0.0734240710735321 -0.12759289145469666 0.1415518820285797 -0.10165490210056305 -0.07542571425437927 0.027094919234514236 -0.15758301317691803 -0.055915459990501404 -0.21268604695796967 0.185201033949852 -0.012955009937286377 0.0928509533405304 0.0727907344698906 -0.21347510814666748 -0.2255949229001999 0.025597063824534416 0.06671614944934845 -0.06925489008426666 -0.17386329174041748 -0.035806700587272644 -0.008988512679934502 -0.08378913998603821 0.17950481176376343 -0.35569122433662415 0.37990790605545044 0.1542559713125229 -0.03238757327198982 0.06560619175434113 0.12545271217823029 -0.006009773351252079 0.09282475709915161 -0.15420521795749664 0.32927703857421875 -0.12442541867494583 0.033007923513650894 -0.14570482075214386 -0.1090146005153656 0.019909214228391647 0.11288367211818695 0.04607619717717171 -0.2352234125137329 0.09277669340372086 0.27082356810569763 0.05214094743132591 -0.05596671625971794 0.1463872641324997 -0.13676291704177856 0.2282068282365799 0.32005926966667175 0.07295408844947815 -0.03554808720946312 -0.1519354283809662 -0.20562653243541718 0.04398713633418083 0.1858978569507599 0.19607238471508026 -0.258455753326416 0.11003724485635757 -0.044574446976184845 0.2221640944480896 0.04591064155101776 -0.2111586332321167 0.25601357221603394 -0.2133922427892685 0.05978735163807869 -0.18538518249988556 0.039385464042425156 -0.03956165909767151 -0.2669157385826111 -0.0414162278175354 -0.0012966978829354048 -0.25603407621383667 -0.1759834885597229 -0.24844492971897125 -0.12849844992160797 -0.023613709956407547 -0.1260325014591217 0.29298609495162964 -0.2122022658586502 -0.08528723567724228
d -0.16092871129512787 -0.10715745389461517 0.2006549835205078 0.144306018948555 -0.16171136498451233 0.12344516813755035 0.056648366153240204 -0.09017499536275864 0.0937529131770134 -0.1742337942123413 0.020312754437327385 -0.03007795475423336 0.07642360776662827 -0.2544306814670563 0.17369593679904938 -0.1637352555990219 0.1647266298532486 0.015054737217724323 -0.19692587852478027 0.039396896958351135 0.04211566597223282 -0.13759642839431763 -0.1304369568824768 -0.051107008010149 0.0923774316906929 -0.2453593760728836 -0.15862910449504852 -0.2064812034368515 -0.2662329375743866 0.10575223714113235 0.0799698457121849 -0.13066615164279938 0.1704781949520111 -0.32073864340782166 -0.113172747194767 0.27617159485816956 0.17480239272117615 -0.02749761752784252 -0.15703661739826202 0.08036258071660995 -0.16525670886039734 -0.008147364482283592 -0.1744934469461441 0.07812594622373581 0.029182711616158485 -0.16529139876365662 0.0756245106458664 -0.22671012580394745 -0.07459212839603424 -0.10880108177661896 0.10616565495729446 0.10068324208259583 0.015614398755133152 0.1118997111916542 0.17704357206821442 0.13971179723739624 0.14860092103481293 0.2428768277168274 -0.32640689611434937 0.025533931329846382 0.17590098083019257 0.15888647735118866 0.09825233370065689 0.12032245844602585 0.044433191418647766 0.22006607055664062 -0.02098257653415203 0.20972302556037903 0.15695978701114655 -0.0474199503660202 -0.09235719591379166 -0.36658424139022827 0.08183613419532776 0.1926274448633194 -0.24973659217357635 0.03374486416578293 0.011266383342444897 -0.19081619381904602 0.06252677738666534 0.0922970101237297 -0.2001827210187912 -0.131748765707016 -0.08071007579565048 0.22256813943386078 -0.04631083458662033 -0.058293115347623825 -0.1194397583603859 -0.15877774357795715 0.15874086320400238 -0.07927344739437103 0.01577857881784439 -0.03115406073629856 0.0032639745622873306 -0.04977598413825035 0.104672871530056 -0.4178122878074646 -0.04696623235940933 0.125249445438385 -0.033840760588645935 -0.21007564663887024
e 0.2931665778160095 0.03624182194471359 -0.003910517320036888 0.21065759658813477 0.16498222947120667 -0.26615795493125916 -0.016228830441832542 -0.16293777525424957 -0.10329576581716537 0.09625788778066635 -0.11439138650894165 -0.0808977410197258 0.11055928468704224 -0.262428879737854 -0.017134523019194603 -0.1792745441198349 0.12193821370601654 -0.3628435432910919 0.0850900411605835 -0.1150967925786972 0.009013446047902107 0.13173998892307281 -0.12174271047115326 -0.07754745334386826 0.06213616579771042 0.21756012737751007 0.33694133162498474 0.3249438405036926 -0.09703096747398376 -0.015272791497409344 0.10176730155944824 0.08200718462467194 -0.25112980604171753 0.27774563431739807 0.148871511220932 0.17514939606189728 -0.30400776863098145 -0.05605372041463852 0.2230266034603119 -0.016703594475984573 -0.04817784205079079 0.30433255434036255 -0.14032480120658875 -0.0352318249642849 0.4466252624988556 0.07383314520120621 -0.13491980731487274 0.09703828394412994 0.2471541166305542 0.29004213213920593 0.3365512490272522 0.031129606068134308 -0.31344038248062134 0.20093998312950134 -0.08298975229263306 -0.30095866322517395 -0.007226982619613409 -0.2786162495613098 -0.030955877155065536 0.032548822462558746 -0.22284312546253204 -0.07304634153842926 -0.23533938825130463 -0.22233892977237701 0.0612247958779335 -0.04072611406445503 0.01878989115357399 -0.30047550797462463 -0.16718313097953796 -0.10242832452058792 -0.36434343457221985 -0.0990312322974205 0.1980002224445343 -0.02477009780704975 0.03153356537222862 -0.10902991890907288 -0.15170741081237793 0.027357010170817375 0.12154146283864975 0.3874792158603668 0.1841745227575302 0.28140923380851746 0.03801204636693001 -0.12772078812122345 -0.19374504685401917 -0.21072086691856384 0.40417417883872986 -0.011757949367165565 0.09299883991479874 -0.1633746325969696 0.2338818460702896 -0.04043147340416908 0.40267908573150635 0.03864387050271034 -0.09039806574583054 0.0714336484670639 0.06860623508691788 -0.0629950687289238 -0.07434888929128647 -0.20829370617866516
f 0.039708588272333145 -0.1818273663520813 0.20337845385074615 0.1360166370868683 0.006632879842072725 -0.03043263591825962 -0.029192183166742325 0.08303989470005035 0.21540404856204987 -0.07525494694709778 0.0655883327126503 -0.0670740082859993 -0.028165528550744057 -0.18186767399311066 0.08613736927509308 0.20184326171875 -0.08339463174343109 0.06249218434095383 0.02646169252693653 -0.16582301259040833 0.16163133084774017 -0.18676042556762695 -0.03903300687670708 -0.16242557764053345 -0.1261894404888153 -0.10343703627586365 0.03312184661626816 0.013205446302890778 -0.1577271968126297 -0.10123603790998459 0.21255455911159515 -0.07031909376382828 -0.029936522245407104 0.12868455052375793 0.00576931145042181 0.30608657002449036 0.05784839764237404 -0.1342354714870453 0.12726840376853943 0.17140625417232513 0.003112246049568057 0.04170091822743416 0.15857675671577454 -0.01443494576960802 -0.0310143381357193 0.06834211945533752 0.025219779461622238 -0.08382223546504974 0.06293341517448425 0.007638185750693083 0.0643797293305397 -0.2615933120250702 0.06861677020788193 0.02244344726204872 0.04669506102800369 6.311929901130497E-4 -0.052062902599573135 0.01804197207093239 -0.1335218995809555 -0.24030697345733643 -0.018387123942375183 -8.179916185326874E-4 0.19880910217761993 0.07025453448295593 0.11037759482860565 -0.03163357824087143 0.12314978241920471 0.21296140551567078 0.22035159170627594 0.024713968858122826 0.002196040004491806 0.03793235495686531 -0.11943061649799347 -0.1309177577495575 0.15597808361053467 0.0032576313242316246 0.1269616335630417 -0.15597862005233765 0.10398789495229721 -0.0924362912774086 -0.017508648335933685 -0.14553935825824738 -0.015958016738295555 0.09706120193004608 0.08172224462032318 0.05729326233267784 -0.19081389904022217 0.182650625705719 0.0344838984310627 0.06702706962823868 -0.0712718740105629 0.022943109273910522 -0.0485989972949028 -0.10300839692354202 0.057030465453863144 -0.16090142726898193 -0.11858871579170227 0.011976548470556736 -0.11095505207777023 -0.09555305540561676
g -0.011171736754477024 -0.04279744252562523 0.24650026857852936 -0.06287160515785217 -0.21869951486587524 -0.04214818403124809 0.06305950880050659 -0.11025464534759521 0.07943908125162125 0.0869629755616188 0.17487607896327972 -0.21808414161205292 -0.26707884669303894 -0.060248229652643204 0.18061533570289612 0.23462577164173126 -0.0801597535610199 -0.23474764823913574 0.07283751666545868 0.02081376127898693 0.26122599840164185 -0.15557345747947693 -0.06390979140996933 -0.09472203254699707 -0.28682741522789 -0.24928168952465057 0.12149541079998016 0.03860265016555786 -0.2887449860572815 -0.050724782049655914 0.27170059084892273 0.11445719003677368 0.12649458646774292 -0.19287733733654022 -0.09131710976362228 0.16571541130542755 -0.020928822457790375 -0.31036967039108276 0.25131678581237793 0.12219956517219543 0.11845855414867401 0.22147563099861145 0.28973251581192017 -0.07861316204071045 0.29933229088783264 -0.018029816448688507 -0.030050497502088547 -0.13889983296394348 0.01933702640235424 0.2012465000152588 0.11546337604522705 -0.07881560921669006 0.1532992273569107 -0.19936570525169373 0.12995372712612152 -0.12829604744911194 -0.16338495910167694 0.09481292963027954 0.2270900160074234 -0.0453835166990757 -0.013034261763095856 -0.14254127442836761 0.2385241687297821 -0.10074818134307861 -0.023893987759947777 -0.02729342319071293 -0.0038133247289806604 0.34601691365242004 0.332132488489151 0.005150413140654564 -0.13423684239387512 0.09813548624515533 -0.19594945013523102 -0.05177398771047592 0.03574712201952934 -0.1519705206155777 -0.08103623986244202 -0.18800827860832214 -0.08381304889917374 0.12851212918758392 -0.26880449056625366 -0.14456698298454285 -0.14131580293178558 -0.24980305135250092 -0.07435158640146255 -0.06147065386176109 -0.23839932680130005 0.3849080801010132 -0.32294049859046936 0.03907541558146477 0.06331866979598999 0.0012240346986800432 0.12975570559501648 -0.14529617130756378 0.1031198799610138 -0.04199891909956932 -0.10112200677394867 -0.14274407923221588 0.020218349993228912 -0.07355720549821854
h 0.008344334550201893 -0.0535193532705307 0.13829925656318665 0.23305223882198334 -0.08617959916591644 0.006535400170832872 -0.274726003408432 -0.18610842525959015 0.13797080516815186 0.03538576886057854 -0.17072206735610962 -0.12134502083063126 -0.19833308458328247 -0.1494596302509308 -0.032742954790592194 -0.11912964284420013 0.10726111382246017 0.023829733952879906 -0.001725822570733726 -0.10632704198360443 0.14325906336307526 0.021148456260561943 -0.40118125081062317 -0.11784049868583679 0.3422842025756836 -0.015906767919659615 -0.08894505351781845 0.07436086982488632 7.433991995640099E-4 -0.1925954818725586 -0.03398288041353226 0.16874577105045319 -0.023135345429182053 0.04618186876177788 0.009875110350549221 0.011233022436499596 0.2411886304616928 -0.10936340689659119 0.13773293793201447 0.12754108011722565 0.07516765594482422 0.12688173353672028 -0.009752761572599411 0.01814936473965645 -0.2571013569831848 0.2131325602531433 -0.15006515383720398 -0.06034769117832184 0.001755658071488142 0.08217740058898926 0.039156194776296616 -0.24845953285694122 0.08230796456336975 -0.05636361241340637 0.2089725136756897 0.04642745479941368 0.10542970895767212 0.15552784502506256 -0.4263092279434204 -0.033471208065748215 0.2445797324180603 0.02957371063530445 0.21714934706687927 0.09330295771360397 -0.15211904048919678 -0.13030104339122772 0.05060939863324165 0.1336905062198639 0.06271032989025116 -0.12987163662910461 0.02133234217762947 -0.02620656043291092 0.051474105566740036 0.060928307473659515 -0.04734814912080765 -0.062404435127973557 -0.07218863070011139 -0.04993376508355141 -0.09187737107276917 0.0627143606543541 -0.030490996316075325 0.16185981035232544 0.14997617900371552 0.018491685390472412 0.08588936924934387 0.06299887597560883 0.10362675040960312 0.2910460829734802 0.11466602981090546 -0.08713065087795258 0.10084698349237442 -0.25364840030670166 0.04695693403482437 0.156153604388237 0.028744785115122795 -0.15374478697776794 -0.1796124279499054 -0.24130645394325256 0.057706985622644424 -0.14442379772663116
i 0.04029828682541847 0.07380834221839905 -0.11470141261816025 0.24432699382305145 -0.026775483042001724 -0.051680851727724075 -0.22926849126815796 -0.13979186117649078 0.29900434613227844 0.12869656085968018 -0.1637917309999466 0.04421166330575943 0.15079618990421295 0.17536184191703796 0.19970735907554626 0.001434986712411046 -0.09254035353660583 0.07446902990341187 -0.04124850407242775 0.2097322940826416 -0.020325923338532448 -0.04785459488630295 0.17490456998348236 -0.029701299965381622 0.015416935086250305 -0.019687727093696594 -0.1458979994058609 0.29390811920166016 -0.25886407494544983 -0.3609220087528229 0.18060651421546936 0.007495857309550047 -0.3142990469932556 0.14498166739940643 -0.08165965229272842 -0.04900985211133957 0.15002459287643433 0.18861247599124908 -0.043154895305633545 -0.1126028522849083 -0.00983182992786169 -0.046831607818603516 0.26428332924842834 -0.0942048653960228 -0.13185660541057587 0.2481912076473236 -0.012097075581550598 0.48354142904281616 -0.05659486725926399 0.05147220939397812 -0.017854686826467514 0.041559889912605286 0.06505799293518066 -0.005424788221716881 -0.04558749869465828 0.29000163078308105 -0.032606933265924454 -0.266519695520401 0.03386552631855011 0.049734655767679214 0.3637411594390869 0.41774308681488037 -0.31089112162590027 0.2525964081287384 -0.1500077247619629 0.08958271145820618 -0.07700823247432709 -0.13452495634555817 -0.37011221051216125 -0.07789835333824158 0.35500967502593994 -0.0013408716768026352 0.23686717450618744 0.04844287037849426 -0.24623724818229675 -0.11697350442409515 0.03745940700173378 -0.14669093489646912 0.15765337646007538 0.2648153305053711 0.26808494329452515 -0.20915548503398895 -0.008612739853560925 -0.18932007253170013 0.047518935054540634 -0.23185938596725464 0.16487543284893036 8.400242077186704E-4 0.04772268980741501 0.17006395757198334 0.11619965732097626 0.20867057144641876 0.018406417220830917 0.03677147626876831 -0.008953058160841465 0.04100140184164047 0.014162559993565083 -0.17365413904190063 0.15349748730659485 0.13003380596637726
j 0.07567064464092255 0.036991000175476074 0.09273646771907806 0.12311853468418121 -0.22114060819149017 0.05864418298006058 -0.1336769461631775 -0.10604090243577957 0.026685146614909172 -0.09680193662643433 0.11205136775970459 -0.16972249746322632 -0.09682437777519226 -0.2203538715839386 0.26523128151893616 -0.03226063773036003 -0.14865943789482117 -0.0782843828201294 -0.003910553175956011 -0.1767427921295166 -0.07754731923341751 -0.3044936954975128 -0.13436152040958405 -0.2566479444503784 -0.16416458785533905 -0.1831601858139038 0.10291360318660736 0.0016300160204991698 -0.48854711651802063 -0.059510812163352966 0.2223907709121704 0.10142935067415237 -0.03730187192559242 0.011532102711498737 0.07719364762306213 0.3706999719142914 0.1989186406135559 0.08275602012872696 0.05047610029578209 -0.04383402690291405 0.08954799175262451 -0.053216829895973206 0.38292932510375977 -0.1369890719652176 -0.08936600387096405 0.18778809905052185 0.008025419898331165 0.00848155003041029 0.025306900963187218 0.07188238203525543 0.02648395486176014 -0.17437545955181122 0.2589532136917114 -0.04134150221943855 0.3874136507511139 0.10203761607408524 0.012985841371119022 0.10001266002655029 -0.09004433453083038 -0.011752590537071228 -0.0261148102581501 0.018622184172272682 -0.11769673228263855 0.05187269672751427 -0.13681991398334503 -0.05496573448181152 -0.054287031292915344 0.2787618339061737 0.14380799233913422 0.0835246592760086 -0.0647648423910141 -0.08866731822490692 -0.05407068133354187 0.08562812954187393 -0.08971679955720901 -0.18780146539211273 0.03651097044348717 -0.15151487290859222 0.21505889296531677 0.16457046568393707 -0.13161635398864746 -0.3352605104446411 -0.083924300968647 0.04106854274868965 0.01795475371181965 0.04256340488791466 -0.08541858941316605 0.17519815266132355 0.05861978977918625 0.1656551957130432 0.0920172929763794 0.06995830684900284 0.2175227701663971 -0.115008644759655 0.1923404335975647 -0.08133399486541748 -0.10012224316596985 -0.04173307493329048 0.13921965658664703 0.07534334808588028
k 0.06760351359844208 -0.1455952674150467 0.23505158722400665 0.208876371383667 0.10935347527265549 -0.14448748528957367 0.0062698000110685825 -0.029360799118876457 0.3656671345233917 -0.03310127183794975 0.07440172135829926 -0.0083921505138278 0.06897823512554169 -0.18366925418376923 -0.020582621917128563 0.23484064638614655 -0.12783317267894745 0.15282809734344482 0.08365665376186371 0.08812165260314941 0.3095700442790985 -0.03996095433831215 -0.09202612936496735 -0.10479966551065445 -0.07971159368753433 -0.09329573810100555 0.018771110102534294 0.049643903970718384 -0.0922233834862709 -0.41925936937332153 0.19294622540473938 0.03919094428420067 0.019507016986608505 -0.06294964253902435 0.1287693828344345 -0.12026447057723999 0.17047104239463806 -0.21032385528087616 0.21998605132102966 0.26489508152008057 0.13503441214561462 0.2243320792913437 0.1375797688961029 0.054162632673978806 -0.11066965013742447 -0.041233573108911514 -0.11618269979953766 -0.04764465242624283 0.059381235390901566 0.013740550726652145 0.17774929106235504 -0.07751372456550598 -0.06359128654003143 -0.1110306978225708 -0.026487940922379494 0.1727072298526764 0.017421728000044823 0.05561031028628349 -0.1513001024723053 -0.09856461733579636 0.2760222554206848 0.01941695064306259 0.17406857013702393 0.14475010335445404 0.09565466642379761 0.05578088387846947 0.01199780311435461 0.06355473399162292 0.15926799178123474 0.05475548654794693 0.18642686307430267 0.09799205511808395 -0.03214756399393082 -0.16298899054527283 -0.11548152565956116 -0.17875421047210693 0.014446546323597431 -0.22770243883132935 0.1520068347454071 -0.037769343703985214 0.004636092111468315 0.13871632516384125 -0.12496233731508255 0.15495140850543976 -0.16096937656402588 -0.08182365447282791 -0.008288228884339333 0.08984161168336868 -0.1544291228055954 -0.04388437047600746 -0.11499942094087601 -0.07070136815309525 -0.018399370834231377 -0.1562829315662384 0.06818176060914993 -0.19341085851192474 -0.29458338022232056 0.10803019255399704 -0.017146944999694824 -0.135996475815773
l 0.08018491417169571 0.29159680008888245 -0.18131107091903687 0.21369418501853943 -0.11293450742959976 -0.119072325527668 0.003568936139345169 -0.24580205976963043 -0.06301835179328918 -0.3521943688392639 0.2264457792043686 0.013861198909580708 0.12590980529785156 0.053309157490730286 0.005840875208377838 -0.1357489675283432 -0.07854460924863815 -0.13407529890537262 -0.1497749537229538 -0.025134997442364693 -0.45788246393203735 -0.06853596866130829 -0.22338400781154633 -0.019705239683389664 -0.2337370663881302 -0.36047548055648804 0.2773737609386444 -0.21379715204238892 -0.0850895494222641 -0.04522804170846939 -0.12274406850337982 -0.049970172345638275 0.05308810621500015 0.018855731934309006 0.10504952073097229 -0.17471244931221008 0.17825691401958466 -0.14740806818008423 -0.24713388085365295 0.041848354041576385 -0.1591828167438507 -0.018453901633620262 -0.1349535435438156 0.08009837567806244 0.006367624271661043 -0.18411841988563538 -0.16820529103279114 0.05556190013885498 0.06387212127447128 0.03628505393862724 0.32115623354911804 0.18857227265834808 0.03607730567455292 -0.13924866914749146 -0.07330525666475296 0.13483503460884094 -0.012675844132900238 0.2579110562801361 0.25485655665397644 0.05219881609082222 0.08478032052516937 -0.0559687465429306 -0.04297385364770889 -0.12373892217874527 -0.1641666442155838 -0.23910202085971832 -0.40577369928359985 0.1500854343175888 0.06996972113847733 -0.07646473497152328 0.1357753574848175 -0.09927108883857727 -0.07125773280858994 0.1468186229467392 0.043723493814468384 -0.1681237518787384 -0.23937825858592987 0.11509972810745239 -0.0830528512597084 0.15506130456924438 0.05090015381574631 0.01576492190361023 0.18608668446540833 0.20946353673934937 0.15586070716381073 -0.3240504264831543 0.1636476218700409 -0.11484557390213013 -0.2954097390174866 0.18437816202640533 -0.08911027759313583 -0.19450384378433228 0.15093518793582916 -0.18378899991512299 0.2924607992172241 0.02517477609217167 -0.1498268097639084 0.17974485456943512 0.1015346497297287 -0.08913475275039673
m 0.1432948112487793 -0.08305805921554565 0.19732673466205597 0.22524286806583405 -0.12771520018577576 -0.032248273491859436 0.20924685895442963 0.04537861421704292 0.07131326198577881 -0.24678291380405426 -0.26687464118003845 -0.2332201898097992 -0.0511518269777298 -0.2142380326986313 0.1469651162624359 0.2678869962692261 -0.044163044542074203 0.12992125749588013 -0.17136524617671967 -0.14000293612480164 -0.17726023495197296 0.1447865515947342 -0.05134958028793335 -0.27667170763015747 0.015854761004447937 -0.31333842873573303 0.028148282319307327 -0.0942099541425705 0.31773656606674194 -0.14870241284370422 0.04981185123324394 0.030163604766130447 -0.13430583477020264 -0.05529453605413437 0.10774541646242142 0.040634334087371826 0.2967078983783722 0.11969254910945892 -0.21524503827095032 0.21628549695014954 -0.07453514635562897 0.31983065605163574 0.13639140129089355 -0.03671297803521156 0.11708492040634155 0.2445249855518341 0.04760793223977089 -0.19158008694648743 0.025116190314292908 0.009235677309334278 0.15813522040843964 -0.26540255546569824 0.1024293601512909 -0.2483106404542923 0.13249088823795319 -0.17951209843158722 -0.14622296392917633 0.17248398065567017 -0.19784195721149445 0.010017911903560162 0.11594884097576141 -0.17818661034107208 0.13552363216876984 0.197615385055542 -0.03317088261246681 -0.016889484599232674 -0.292671263217926 0.30099424719810486 0.19021114706993103 0.18251150846481323 0.03798788785934448 -0.04555971175432205 -0.025205768644809723 -0.33934101462364197 0.161327064037323 -0.16406334936618805 -0.24853190779685974 -0.03434636816382408 0.09879755228757858 0.13799583911895752 -0.22372448444366455 0.05864696204662323 -0.08342614769935608 -0.08206059783697128 0.02260148711502552 -0.029643816873431206 -0.0017707835650071502 0.0866956040263176 0.09639780223369598 0.13700923323631287 0.12276531010866165 0.14785751700401306 -0.22082318365573883 -0.06237904354929924 0.07467379420995712 0.1271989494562149 -0.14697904884815216 -0.07053060084581375 0.004468776285648346 -0.17479705810546875
n 0.0596046969294548 -0.23176309466362 -0.23632371425628662 0.004189670085906982 0.2004416286945343 -0.02918103337287903 -0.10455811768770218 -0.06810199469327927 -0.07165176421403885 -0.13542722165584564 0.3232783079147339 -0.015327042900025845 -0.18456386029720306 -0.38803428411483765 -0.034589678049087524 -0.13356010615825653 -0.09561736136674881 0.17507460713386536 0.039908673614263535 -0.389509379863739 -0.23725956678390503 -0.19560523331165314 -0.19514675438404083 -0.10821621119976044 -0.06373102217912674 0.13468186557292938 0.11952805519104004 0.18566016852855682 -0.07358135282993317 -0.051577936857938766 0.03938276320695877 0.08253156393766403 -0.10482410341501236 0.11204293370246887 0.24250160157680511 0.011378687806427479 0.26959139108657837 0.04514048248529434 -0.0100856963545084 0.09079994261264801 0.040412649512290955 -0.28078797459602356 0.13556396961212158 0.04439491778612137 -0.27866268157958984 0.1882481575012207 -0.15916882455348969 0.004837792832404375 0.273099809885025 -0.2737170457839966 -0.0105294706299901 -0.3083094656467438 0.027697615325450897 0.03514702990651131 0.08295199275016785 0.0027100685983896255 0.004377537872642279 0.07350416481494904 -0.26920849084854126 -0.23084910213947296 -0.12597709894180298 -0.33478885889053345 -0.013460961170494556 0.028210781514644623 -0.04753169044852257 -0.21479588747024536 -0.10097479075193405 0.023853886872529984 0.09158601611852646 0.10924527049064636 -0.13488087058067322 -0.11270281672477722 -0.029928376898169518 -0.06004946678876877 0.3097745180130005 -0.06379382312297821 -0.04323013126850128 0.38813316822052 0.34796348214149475 -0.17273929715156555 0.3073069751262665 -0.0441347099840641 0.2053796947002411 0.27960625290870667 0.28117790818214417 0.18522042036056519 0.0756588950753212 -0.13259956240653992 0.2863277196884155 0.15778771042823792 -0.16195708513259888 -0.16913580894470215 0.12881778180599213 -0.01801089011132717 0.196262389421463 -0.0068445708602666855 -0.14677856862545013 0.3314898908138275 -0.049575310200452805 0.055393338203430176
o -0.03856544941663742 -0.07753778249025345 -0.24621129035949707 0.10941261798143387 -0.30534443259239197 -0.2947608232498169 -0.25217369198799133 -0.09679896384477615 -0.16361397504806519 0.1133916899561882 0.11842937022447586 0.20761235058307648 -0.12475911527872086 0.12520192563533783 0.22486917674541473 0.07134425640106201 0.32185396552085876 -0.041461583226919174 7.723260932834819E-5 0.04844381660223007 0.3233548700809479 -0.11847538501024246 0.13190773129463196 0.18994222581386566 -0.02011432871222496 0.13771489262580872 0.08737005293369293 0.0743803158402443 -0.16562828421592712 0.2062344253063202 0.15555255115032196 -0.08912798017263412 -0.17428521811962128 0.1731107383966446 0.11609101295471191 0.09101969748735428 -0.14606183767318726 0.2119373381137848 0.10020601749420166 -0.016339419409632683 -0.009355934336781502 0.04043605178594589 -0.48636937141418457 0.10677022486925125 0.188832625746727 0.058206163346767426 0.0962851420044899 -0.12047016620635986 0.09084747731685638 0.18647506833076477 0.4028395116329193 -0.07392553240060806 -0.12333832681179047 -0.4998205006122589 -0.13219989836215973 -0.001959924353286624 -0.13227733969688416 -0.02870793081820011 -0.19485610723495483 -0.14632050693035126 0.004173715133219957 0.032246239483356476 -0.08981044590473175 0.08086635172367096 0.1540578305721283 0.3514675498008728 0.028925718739628792 0.21134115755558014 -0.058618031442165375 0.11999998986721039 0.10307139903306961 -0.12197825312614441 0.23357486724853516 -0.11438685655593872 0.05419539287686348 -0.07814390957355499 0.049279965460300446 -0.047063615173101425 0.010365302674472332 0.10610921680927277 0.0678056925535202 0.22501833736896515 0.03339912369847298 0.027173833921551704 0.24955157935619354 0.11484912037849426 0.18481874465942383 -0.021396514028310776 -0.1490827202796936 -0.07851414382457733 -0.39273595809936523 -0.1170831024646759 -0.1252794712781906 -0.0885116383433342 0.32057493925094604 -0.080072782933712 0.16777729988098145 -0.3150995373725891 0.13244855403900146 -0.18188020586967468
p -0.047313541173934937 -0.13822109997272491 0.08796877413988113 0.21746595203876495 0.026228073984384537 -0.03802043944597244 -0.07098031789064407 0.055067311972379684 0.31661346554756165 -0.07874093949794769 0.26879703998565674 -0.12275337427854538 0.15653781592845917 -0.03778290003538132 0.062256328761577606 0.15825045108795166 -0.1010826826095581 -0.08572668582201004 0.10570687055587769 -0.10551651567220688 -0.09371212869882584 -0.23106588423252106 -0.2137109339237213 -0.08903492242097855 -0.10122687369585037 -0.12057065218687057 0.08735720068216324 0.032752297818660736 -0.2543429434299469 -0.016410356387495995 0.16565440595149994 -0.30186963081359863 0.11259115487337112 0.21119603514671326 -0.30197393894195557 0.3312041759490967 -0.11446775496006012 -0.3274633288383484 0.11522523313760757 0.22750893235206604 -0.08140137046575546 -0.26511526107788086 -0.06510411202907562 0.03936111554503441 0.047824691981077194 -0.19302897155284882 -0.13379471004009247 0.1362558901309967 0.11509807407855988 -0.016581887379288673 -0.09864078462123871 -0.13484951853752136 -0.15802063047885895 0.21996574103832245 -0.2196720987558365 0.16412220895290375 -0.1628665179014206 -0.07417070120573044 0.1947920173406601 -0.36386269330978394 0.02371024899184704 0.2509031593799591 0.31618165969848633 0.00615359703078866 0.14340361952781677 -0.13703438639640808 0.07636836171150208 0.15151672065258026 0.011957013048231602 -0.22090719640254974 0.006212080828845501 0.031003428623080254 -0.1358284205198288 0.19180309772491455 0.3068123161792755 0.28406235575675964 0.25304079055786133 -0.07959918677806854 0.010148474015295506 -0.22497113049030304 0.2556035816669464 -0.1124616339802742 0.11794938892126083 0.06557046622037888 0.26064372062683105 -0.13379865884780884 -0.31820815801620483 0.08831881731748581 -0.07934720814228058 -0.10738606005907059 -0.08477205783128738 -0.08987503498792648 -0.027500536292791367 0.040323611348867416 -0.009248740039765835 -0.34497520327568054 -0.08842381089925766 0.02775328792631626 -0.27162688970565796 -0.11043833941221237
q -0.2033187597990036 -0.017440207302570343 -0.17737264931201935 -0.19371630251407623 -0.5245018601417542 -0.16233448684215546 -0.28458502888679504 -0.0244038887321949 -0.15350531041622162 -0.04563114047050476 0.3092541992664337 -0.38520416617393494 -0.3026944100856781 -0.19966238737106323 0.5847328901290894 0.2043890357017517 -0.3349364399909973 -0.030959507450461388 -0.06160413473844528 -0.30624374747276306 0.03147323429584503 -0.6030246615409851 -0.1168505996465683 -0.07682197540998459 -0.37853771448135376 -0.26825961470603943 0.3238307535648346 -0.06818383187055588 -0.6232495903968811 0.15322428941726685 0.31219011545181274 -0.05281371250748634 -0.13325433433055878 0.09678718447685242 0.0697273537516594 0.7629927396774292 0.10174684226512909 0.1979013979434967 0.016227541491389275 -0.18380066752433777 0.20134860277175903 -0.07094655930995941 0.4024912416934967 -0.15157188475131989 0.16025586426258087 0.2510073482990265 0.216663658618927 -0.3106731176376343 0.01350138708949089 0.027529336512088776 -0.10922396183013916 -0.3028639554977417 0.2085452377796173 -0.24553324282169342 0.6636074781417847 -0.026317961513996124 -0.4581497609615326 0.17621678113937378 -0.05563810467720032 -0.09996192157268524 -0.30878472328186035 -0.34396103024482727 -0.2005237340927124 -0.09352192282676697 0.14780902862548828 0.040177807211875916 0.02385552041232586 0.544660747051239 0.4015202224254608 0.32083868980407715 -0.20816168189048767 0.022393355146050453 0.02712457999587059 -0.08700673282146454 0.028029892593622208 -0.4057406485080719 0.14548686146736145 -0.1812608540058136 0.2233530730009079 0.08189520984888077 -0.418740838766098 -0.5559384822845459 -0.2898058295249939 -0.00161720288451761 0.07549658417701721 0.10757608711719513 -0.4135594964027405 0.45138052105903625 0.05765283480286598 0.23023651540279388 0.05882665142416954 0.3310863971710205 0.2930186688899994 -0.29401788115501404 0.5696612000465393 -0.13082993030548096 0.042619239538908005 -0.16127614676952362 0.28391605615615845 0.08117237687110901
r 0.10722015053033829 0.15479110181331635 -0.0197807215154171 0.15983542799949646 0.05375518649816513 -0.029731575399637222 -0.052142057567834854 -0.20491981506347656 -0.018849793821573257 0.0033638859167695045 0.2694738507270813 -0.14835311472415924 -0.09616237133741379 -0.11018484085798264 -0.13410092890262604 0.1041322872042656 -0.0897669643163681 -0.17556323111057281 -0.12654532492160797 -0.07476918399333954 -0.09452182799577713 0.13900476694107056 -0.16780373454093933 0.259472519159317 -0.039327602833509445 -0.2728669345378876 -0.06683599948883057 -0.09735379368066788 -0.12330738455057144 -0.09191471338272095 -0.1602008044719696 -0.011317661963403225 0.12356515228748322 -0.14756740629673004 0.2072661966085434 -0.06183582916855812 0.26211485266685486 0.17173632979393005 0.23506733775138855 0.048855267465114594 -0.09075028449296951 -0.10936274379491806 0.08386887609958649 0.037597522139549255 -0.0101012559607625 0.38801252841949463 -0.17823264002799988 0.21998590230941772 0.3098619878292084 0.2509855031967163 -0.04314219579100609 -0.21265996992588043 0.20006351172924042 -0.17721566557884216 -0.058793600648641586 0.391217440366745 0.0598270408809185 0.451193630695343 -0.052358437329530716 0.05636831372976303 0.07006186246871948 -0.27940502762794495 -0.15856322646141052 0.22971780598163605 0.010588976554572582 0.04302617907524109 0.008211354725062847 0.257990300655365 0.19404171407222748 0.371783971786499 0.14799979329109192 -0.11919713765382767 -0.37493112683296204 0.2832268178462982 -0.08350096642971039 -0.13103576004505157 0.09827082604169846 0.06610917299985886 -0.04196907952427864 0.300339937210083 0.06702064722776413 0.19917131960391998 -0.07974960654973984 0.021510422229766846 0.02691681496798992 0.2754063010215759 -0.12124773114919662 -0.18956470489501953 -0.14323903620243073 -0.21016761660575867 0.0596252866089344 0.09628298878669739 0.24280107021331787 -0.005438182037323713 -0.22231252491474152 0.02567959576845169 -0.165037140250206 -0.013513877056539059 0.1643076390028 0.09943106025457382
s 0.09374019503593445 -0.36474359035491943 0.15698793530464172 -0.0623626634478569 0.08854230493307114 0.11580923199653625 0.1288636028766632 -0.0769868716597557 0.16240093111991882 -0.06735767424106598 0.1972886323928833 0.511517345905304 -0.32810449600219727 -0.05944240465760231 0.042661525309085846 0.12938515841960907 0.2130488008260727 -0.14729563891887665 -0.2678949236869812 0.006662948988378048 0.12290835380554199 -0.07092100381851196 0.29347142577171326 0.10233117640018463 -0.3990305960178375 -0.4637925326824188 -0.39240020513534546 0.22181436419487 -0.09105188399553299 0.1283077895641327 0.2705127000808716 -0.11394765973091125 -0.09362245351076126 -0.09440554678440094 -0.0188728179782629 0.12976747751235962 0.09803365916013718 -0.22459763288497925 0.12787982821464539 0.09118195623159409 -0.5352460145950317 0.10264097154140472 0.1523672491312027 0.2693954110145569 0.04915277287364006 0.13044174015522003 0.13140596449375153 -0.010545732453465462 0.0353737436234951 0.00995874498039484 0.3446514308452606 0.032471660524606705 0.1142423152923584 0.050914399325847626 -0.36769944429397583 -0.17659766972064972 0.34683758020401 0.10562197864055634 -0.06254389137029648 -0.07305323332548141 0.1770613193511963 -0.08757127076387405 0.006138368044048548 -0.031772367656230927 -0.09864366054534912 -0.0804085060954094 0.24491506814956665 0.16953431069850922 0.12211563438177109 -0.13306552171707153 -0.042589716613292694 -0.3058668076992035 -0.351484477519989 0.020911797881126404 0.2046666294336319 0.020021045580506325 -0.009707039222121239 -0.04958699643611908 -0.07446776330471039 0.20280836522579193 0.025011153891682625 -0.2926180064678192 0.14595633745193481 0.005661262199282646 0.12277223914861679 0.008688700385391712 -0.05516336113214493 -0.16929511725902557 0.14991025626659393 0.4381561279296875 -0.17375530302524567 0.2731691896915436 0.07106688618659973 0.08750171959400177 -0.13858510553836823 0.09092006087303162 0.20438005030155182 -0.06747715175151825 0.10998451709747314 -0.07512374222278595
t 0.4217100441455841 -0.05297812819480896 0.5182644128799438 -0.12049834430217743 0.09507068991661072 0.104835145175457 0.033570051193237305 -0.018366273492574692 0.02998705394566059 -0.16291755437850952 0.03563719615340233 -0.039886824786663055 0.2619304358959198 -0.2086241990327835 -0.11616533994674683 0.043669313192367554 -0.15619561076164246 0.06045316904783249 -0.0688467025756836 0.019773824140429497 -0.199138805270195 -0.19429464638233185 -0.2671450674533844 -0.33643993735313416 -0.10135609656572342 -0.35609903931617737 -0.1269313097000122 0.03979790210723877 -0.0664665475487709 -0.2215104103088379 -0.009022889658808708 -0.15309667587280273 -0.04890620708465576 0.01013133954256773 -0.040128640830516815 0.09543886035680771 0.17334289848804474 -0.24799923598766327 0.037436582148075104 0.09396085143089294 0.06972967088222504 0.18410569429397583 0.3542565703392029 0.01691688783466816 -0.1726655215024948 -0.05783267319202423 -0.20362788438796997 -0.2090352475643158 -0.050659313797950745 -0.08261164277791977 -0.10976476967334747 0.011410665698349476 -0.23698629438877106 0.15649709105491638 0.15777377784252167 -0.06607677042484283 0.09276083111763 0.09970981627702713 0.07022059708833694 0.35067838430404663 -0.049882616847753525 0.15271756052970886 0.08159127831459045 -0.15504051744937897 0.14053398370742798 -0.22083818912506104 0.015298984944820404 0.07052048295736313 0.16882817447185516 0.07864915579557419 0.009426520206034184 0.08899891376495361 -0.3345648944377899 0.1441463828086853 0.030529160052537918 -0.04417964071035385 -0.11575095355510712 -0.33973076939582825 0.1322871297597885 -0.25402382016181946 -0.204539954662323 -0.02572127990424633 -0.007314194459468126 0.22506721317768097 -0.4510073661804199 -0.3556690216064453 -0.04916614666581154 0.030108753591775894 -0.004784130025655031 -0.08680526167154312 -0.014750882051885128 0.037834420800209045 0.14976677298545837 -0.08671186119318008 -0.12114754319190979 -0.15145862102508545 -0.34484049677848816 0.2016880065202713 0.16665388643741608 0.05600017309188843
u 0.32780346274375916 -0.04608713462948799 0.14359146356582642 0.06623528152704239 -0.0878283903002739 0.1404171586036682 0.08282618224620819 0.04141434282064438 -7.842857739888132E-4 0.02493196539580822 0.034487854689359665 0.08408421277999878 -0.13490916788578033 0.10788318514823914 -0.03502975404262543 0.17038990557193756 0.09150929003953934 -0.13405536115169525 0.3144088387489319 0.05634823814034462 -0.1102532297372818 0.1995864063501358 -0.034083232283592224 -0.3603432774543762 -0.05258490517735481 0.14073921740055084 -0.03373795747756958 0.19867700338363647 0.09720760583877563 -0.02792729251086712 0.18920733034610748 0.28865280747413635 0.018394721671938896 -0.011625854298472404 0.07806205004453659 -0.2675764560699463 -0.17058083415031433 -0.019396277144551277 0.3211265206336975 0.1733790785074234 0.10373004525899887 0.09711906313896179 0.043509986251592636 0.01989903301000595 -0.17153523862361908 0.010839785449206829 -0.23277197778224945 0.07035701721906662 0.00627234997227788 0.21723803877830505 0.09146912395954132 -0.07334184646606445 0.004487260710448027 -0.27935144305229187 -0.15938866138458252 -0.07012822479009628 0.24776647984981537 -0.11109966039657593 0.34918615221977234 0.0653873085975647 0.12817247211933136 0.23992376029491425 0.11913063377141953 0.09868283569812775 -0.3621908724308014 -0.13622131943702698 -0.11907003819942474 0.08404826372861862 -0.28361910581588745 -0.07842394709587097 -0.00724614504724741 0.13842731714248657 -0.24683935940265656 0.011849116533994675 0.19080525636672974 0.12673813104629517 -0.07723288238048553 -0.037722982466220856 0.07672813534736633 -0.08723631501197815 0.08324527740478516 0.25261616706848145 -0.0011023991974070668 -0.2415349781513214 0.06525837630033493 0.14771172404289246 0.1518605649471283 0.14030708372592926 -0.16958178579807281 -0.10379867255687714 -0.13084626197814941 -0.22171688079833984 -0.126779243350029 0.1896582841873169 -0.17537744343280792 0.2917066812515259 0.057362452149391174 -0.39534828066825867 0.09836278110742569 0.15013326704502106
v 0.03593233600258827 -0.11361780762672424 0.29788920283317566 0.22502663731575012 -0.06768196076154709 0.1386624425649643 -0.009318079799413681 0.17907653748989105 0.29792898893356323 -0.23488806188106537 -0.1530187577009201 0.006165235303342342 -0.10809726268053055 -0.24806489050388336 0.11441942304372787 0.25892043113708496 -0.028670011088252068 0.10440241545438766 0.10466451942920685 -0.19901077449321747 0.10359872132539749 0.0050458842888474464 -0.20723022520542145 -0.32119837403297424 0.012567740865051746 -0.0684080421924591 -0.06556739658117294 -0.2266896814107895 0.04299857094883919 -0.0506049320101738 0.1181703582406044 0.16504639387130737 0.10452158004045486 0.03851722180843353 0.10001745074987411 0.05434092879295349 0.060882095247507095 -0.09725109487771988 0.11069019883871078 0.23498190939426422 -0.03615054115653038 0.11738545447587967 0.05255202203989029 -0.04305671527981758 -0.25549817085266113 0.04483724758028984 0.013243291527032852 -0.23100681602954865 -0.036758359521627426 0.012600215151906013 0.13593414425849915 -0.275860071182251 0.18201592564582825 -0.1639353185892105 0.12200293689966202 0.038636114448308945 0.22494083642959595 0.194933220744133 -0.1808791309595108 -0.14175495505332947 0.19914910197257996 0.08118143677711487 0.3067951500415802 0.1965014636516571 -0.16530852019786835 -0.07647491246461868 0.06251981854438782 0.26573002338409424 0.16768485307693481 -0.06432029604911804 0.054899826645851135 0.02698983997106552 -0.2296125292778015 -0.1610340178012848 0.11930300295352936 0.01860732212662697 0.06188361719250679 -0.1898963451385498 0.03499114513397217 -0.013522027991712093 -0.12657122313976288 0.03915167227387428 -0.025146301835775375 0.1684531420469284 0.026654327288269997 0.128377765417099 -0.020849116146564484 0.23276641964912415 -0.002384004881605506 0.06671968102455139 -0.07156869024038315 -0.18413062393665314 -0.24218855798244476 -0.02733861654996872 0.019034672528505325 -0.10462447255849838 -0.056213539093732834 -0.08126403391361237 0.007000111974775791 -0.13962292671203613
w 0.244935542345047 0.02905680425465107 0.25825798511505127 0.0780787393450737 0.13028551638126373 0.15960246324539185 0.05919097363948822 0.15327218174934387 0.12364894151687622 -0.08272070437669754 -0.18302348256111145 -0.0067202262580394745 0.04679113253951073 -0.08188208937644958 0.03734821826219559 0.22476868331432343 -0.00418083043769002 -0.027993973344564438 0.0807344913482666 -0.18647553026676178 -0.08565901219844818 0.004439557436853647 0.07047788798809052 -0.2286374419927597 -0.12437231093645096 0.033053308725357056 -0.07349609583616257 -0.0526789054274559 0.0620567724108696 0.01151229441165924 0.009411776438355446 0.06510516256093979 -0.05681275203824043 0.1935516744852066 -0.08090556412935257 -0.08421047031879425 -0.08002576977014542 -0.10086002945899963 -0.038009174168109894 0.09460584074258804 -0.08885864168405533 -0.05529143661260605 0.2034919559955597 -0.26847484707832336 0.07067087292671204 0.1455233097076416 -0.03151094540953636 0.1077578216791153 0.10773558914661407 0.008249351754784584 0.06719712913036346 -0.26510387659072876 0.18788856267929077 -0.1443469226360321 -0.17400872707366943 -0.1162257269024849 0.018039053305983543 -0.06795573979616165 0.2603098452091217 -0.06203189864754677 -0.07854998111724854 0.14888814091682434 0.2113647311925888 0.10820697993040085 -0.07632138580083847 -0.08451990783214569 -0.037559740245342255 0.10466726124286652 0.07945422828197479 -0.022702600806951523 0.1337156742811203 0.09938187897205353 -0.34266790747642517 -0.1557369828224182 0.36435645818710327 0.186953604221344 -0.08452661335468292 0.00605815602466464 -0.013882774859666824 0.056279003620147705 0.19472981989383698 -0.04123689606785774 0.18828344345092773 -0.08181485533714294 0.052083104848861694 -0.13349291682243347 0.10612897574901581 0.04827206954360008 -0.21180425584316254 0.12098551541566849 -0.07415051758289337 -0.1738244593143463 -0.30949103832244873 -0.11486558616161346 -0.19574353098869324 0.10206538438796997 -0.046907711774110794 0.16452471911907196 -0.11020141839981079 -0.0025508394464850426
x 0.11260796338319778 -0.09084821492433548 0.16998420655727386 0.1297745704650879 -0.11082883924245834 0.07044025510549545 -0.09377094358205795 -0.09587978571653366 -0.01424342393875122 -0.07308438420295715 -0.06872338801622391 0.0800396054983139 -0.1811303049325943 -0.029005181044340134 -0.06875535100698471 -0.019404403865337372 0.16037943959236145 -0.022300763055682182 -0.13182033598423004 -0.08155301958322525 -0.07342685014009476 0.02087963931262493 -0.2289009839296341 -0.07247279584407806 0.15946358442306519 -0.2528931498527527 -0.18535944819450378 -0.027656475082039833 0.1416531652212143 0.03279596194624901 -0.09591314941644669 -0.03517242893576622 0.033210523426532745 0.039686959236860275 -0.029227618128061295 0.05729110538959503 0.25202909111976624 -0.019099092110991478 0.010659975931048393 0.09805581718683243 -0.08793479204177856 0.025767356157302856 -0.024789907038211823 0.11258605867624283 -0.19196875393390656 0.1889781355857849 -0.048580557107925415 -0.08358955383300781 -0.008654650300741196 0.06480675935745239 0.03341762349009514 -0.1808680146932602 0.06062928959727287 -0.07234387844800949 0.043413955718278885 -0.02303537167608738 0.11671630293130875 0.21383146941661835 -0.3219921588897705 -0.005299805663526058 0.12884441018104553 -0.017913132905960083 0.1773807257413864 0.03783450648188591 -0.10517960041761398 -0.15881450474262238 0.0380764938890934 0.22922973334789276 0.07627273350954056 -0.04277396574616432 0.05152569338679314 -0.10742620378732681 -0.13147270679473877 0.1231100857257843 0.1462562531232834 0.06235731765627861 -0.02264631725847721 -0.002214968204498291 -0.1304306834936142 -0.01924058422446251 -0.09416761249303818 0.08820834010839462 0.19284379482269287 0.05740887299180031 0.1442738026380539 0.1104017123579979 -0.014843720011413097 0.05764826387166977 0.11365862935781479 0.016431819647550583 -0.034345515072345734 -0.034258514642715454 -0.040519487112760544 0.1969660073518753 -0.04154316335916519 -0.019472355023026466 -0.08548928052186966 -0.23965278267860413 0.07682526111602783 -0.09535077214241028
y 0.12302210181951523 -0.3464146852493286 0.1606360226869583 0.012552066706120968 0.10490363836288452 0.05147084221243858 0.25865283608436584 0.010290377773344517 0.06256821751594543 0.07685347646474838 0.08925341814756393 -0.06982878595590591 0.009024512022733688 -0.23026637732982635 0.034976776689291 0.11824920773506165 0.13940715789794922 0.0729021281003952 0.018248533830046654 0.08248433470726013 0.09346259385347366 0.12271953374147415 0.19766101241111755 -0.11578428000211716 5.694207502529025E-4 0.052849527448415756 -0.19052989780902863 0.31627944111824036 -0.0040552131831645966 -0.08856230974197388 0.29197126626968384 -0.014127007685601711 -0.10375179350376129 -0.3055476248264313 0.01943112351000309 0.01621536910533905 0.010449174791574478 0.07839498668909073 0.13796579837799072 0.2234472930431366 -0.05711764097213745 0.12751074135303497 0.02058844082057476 0.08811862766742706 0.16172173619270325 0.06050611659884453 -0.07576453685760498 -0.03497924283146858 0.12621024250984192 -0.05221297964453697 0.04247235879302025 -0.07387229800224304 -0.14668920636177063 -0.02372257597744465 -0.16819466650485992 -0.07637598365545273 0.06153899058699608 -0.08680757880210876 -0.048630449920892715 0.022693898528814316 0.09833962470293045 0.04996243119239807 0.0250416100025177 0.2540026605129242 0.10194380581378937 0.2794025242328644 -0.05577443540096283 0.0399453304708004 -0.06418479233980179 0.17798462510108948 -0.15457232296466827 -0.17847047746181488 -0.0135688167065382 -0.10012040287256241 -0.002447898034006357 0.06617044657468796 -0.08328746259212494 -0.043177373707294464 0.313975065946579 -0.028249332681298256 0.08686672896146774 0.10899675637483597 -0.20695459842681885 -0.15252867341041565 -0.06317674368619919 0.10946230590343475 -0.047021545469760895 -0.21691489219665527 0.19327715039253235 -0.1896091252565384 -0.04057568684220314 0.0904262438416481 -0.08836447447538376 0.039577726274728775 -0.19388507306575775 -0.034355513751506805 -0.018773525953292847 0.027078554034233093 -0.08948569744825363 -0.0037742783315479755
z 0.24276801943778992 -0.10737684369087219 0.39375922083854675 0.1770198792219162 -0.0564972385764122 0.1669079065322876 0.13560740649700165 0.16768424212932587 0.08011508733034134 -0.21300730109214783 0.18331699073314667 0.13361318409442902 -0.03661366552114487 -0.33559006452560425 0.09619498252868652 0.2109186202287674 0.06507489085197449 -0.11678773909807205 0.25448229908943176 -0.16620956361293793 0.16979734599590302 -0.08729027211666107 -0.05206603929400444 -0.38593560457229614 -0.2567351162433624 0.05532333254814148 0.051129601895809174 -0.23057669401168823 -0.3151075839996338 0.14337998628616333 0.2929594814777374 0.20171281695365906 0.24737492203712463 -0.08204955607652664 0.2718666195869446 0.17714770138263702 -0.14765648543834686 -0.011426430195569992 0.36092284321784973 0.20954003930091858 0.04508787766098976 0.04338860511779785 0.0249183289706707 -0.04509321600198746 -0.12655264139175415 -0.0856143906712532 -0.03644748404622078 -0.23227687180042267 0.1026773750782013 0.17795200645923615 0.3060316741466522 -0.17543363571166992 0.17778320610523224 -0.1964106559753418 0.07235812395811081 0.09682200103998184 0.4003708064556122 0.17058397829532623 -0.00789414718747139 -0.12091727554798126 -0.06437591463327408 0.12153136730194092 0.16140414774417877 0.15897691249847412 -0.13315723836421967 0.09996084123849869 0.10697518289089203 0.31073102355003357 0.19179701805114746 0.1165795773267746 -0.10476087778806686 -0.08206648379564285 -0.3964235782623291 -0.004575788043439388 0.058089978992938995 0.07269287109375 0.1775161325931549 -0.2600618004798889 0.24981831014156342 -5.710825207643211E-4 -0.11540046334266663 0.06323487311601639 -0.15627969801425934 0.2596189081668854 -0.07687116414308548 0.31127721071243286 -0.02211967296898365 0.013501222245395184 -0.1629205048084259 -0.11507771164178848 -0.2749141752719879 -0.23689928650856018 -0.07200708240270615 -0.17234669625759125 -0.03522638976573944 -0.09855825453996658 -0.01741553097963333 0.0023753908462822437 -0.007317127659916878 -0.04347792640328407
